,unit,B-ÔłžB+,B-ÔłžV-,B-ÔłžV+,B-ÔłžS-,B-ÔłžS+,B+ÔłžV-,B+ÔłžV+,B+ÔłžS-,B+ÔłžS+,V-ÔłžV+,V-ÔłžS-,V-ÔłžS+,V+ÔłžS-,V+ÔłžS+,S-ÔłžS+
unit,-79.06063817120048,-1600.167818963306,-273.56542616073494,-273.56542616073494,-273.56542616073494,-273.56542616073494,-103.2242960675954,-103.2242960675954,-103.2242960675954,-103.2242960675954,-20.115390114490047,-20.115390114490047,-20.115390114490047,-20.115390114490047,-20.115390114490047,-20.115390114490047
B-ÔłžB+,2424.925941573249,-9.398175195101242,-14.10346898138516,-14.10346898138516,-14.10346898138516,-14.10346898138516,-5.091635827235184,-5.091635827235184,-5.091635827235184,-5.091635827235184,-1.2028814570194295,-1.2028814570194295,-1.2028814570194295,-1.2028814570194295,-1.2028814570194295,-1.2028814570194295
B-ÔłžV-,302.63204035422024,2.1981210510099336,-0.5980482315814871,-0.5980482315814871,-0.5980482315814871,-0.5980482315814871,-0.22304347430996468,-0.22304347430996468,-0.22304347430996468,-0.22304347430996468,-0.046647178170857055,-0.046647178170857055,-0.046647178170857055,-0.046647178170857055,-0.046647178170857055,-0.046647178170857055
B-ÔłžV+,302.63204035422024,2.1981210510099336,-0.5980482315814871,-0.5980482315814871,-0.5980482315814871,-0.5980482315814871,-0.22304347430996468,-0.22304347430996468,-0.22304347430996468,-0.22304347430996468,-0.046647178170857055,-0.046647178170857055,-0.046647178170857055,-0.046647178170857055,-0.046647178170857055,-0.046647178170857055
B-ÔłžS-,302.63204035422024,2.1981210510099336,-0.5980482315814871,-0.5980482315814871,-0.5980482315814871,-0.5980482315814871,-0.22304347430996468,-0.22304347430996468,-0.22304347430996468,-0.22304347430996468,-0.046647178170857055,-0.046647178170857055,-0.046647178170857055,-0.046647178170857055,-0.046647178170857055,-0.046647178170857055
B-ÔłžS+,302.63204035422024,2.1981210510099336,-0.5980482315814871,-0.5980482315814871,-0.5980482315814871,-0.5980482315814871,-0.22304347430996468,-0.22304347430996468,-0.22304347430996468,-0.22304347430996468,-0.046647178170857055,-0.046647178170857055,-0.046647178170857055,-0.046647178170857055,-0.046647178170857055,-0.046647178170857055
B+ÔłžV-,85.84198650986644,0.619136517967489,-0.1806311031430535,-0.1806311031430535,-0.1806311031430535,-0.1806311031430535,-0.06621376433355296,-0.06621376433355296,-0.06621376433355296,-0.06621376433355296,-0.014851978407022834,-0.014851978407022834,-0.014851978407022834,-0.014851978407022834,-0.014851978407022834,-0.014851978407022834
B+ÔłžV+,85.84198650986644,0.619136517967489,-0.1806311031430535,-0.1806311031430535,-0.1806311031430535,-0.1806311031430535,-0.06621376433355296,-0.06621376433355296,-0.06621376433355296,-0.06621376433355296,-0.014851978407022834,-0.014851978407022834,-0.014851978407022834,-0.014851978407022834,-0.014851978407022834,-0.014851978407022834
B+ÔłžS-,85.84198650986644,0.619136517967489,-0.1806311031430535,-0.1806311031430535,-0.1806311031430535,-0.1806311031430535,-0.06621376433355296,-0.06621376433355296,-0.06621376433355296,-0.06621376433355296,-0.014851978407022834,-0.014851978407022834,-0.014851978407022834,-0.014851978407022834,-0.014851978407022834,-0.014851978407022834
B+ÔłžS+,85.84198650986644,0.619136517967489,-0.1806311031430535,-0.1806311031430535,-0.1806311031430535,-0.1806311031430535,-0.06621376433355296,-0.06621376433355296,-0.06621376433355296,-0.06621376433355296,-0.014851978407022834,-0.014851978407022834,-0.014851978407022834,-0.014851978407022834,-0.014851978407022834,-0.014851978407022834
V-ÔłžV+,14.691738795088181,-0.026830918256289808,-0.024186364139891982,-0.024186364139891982,-0.024186364139891982,-0.024186364139891982,-0.010235726177315241,-0.010235726177315241,-0.010235726177315241,-0.010235726177315241,-0.0010564851536138903,-0.0010564851536138903,-0.0010564851536138903,-0.0010564851536138903,-0.0010564851536138903,-0.0010564851536138903
V-ÔłžS-,14.691738795088181,-0.026830918256289808,-0.024186364139891982,-0.024186364139891982,-0.024186364139891982,-0.024186364139891982,-0.010235726177315241,-0.010235726177315241,-0.010235726177315241,-0.010235726177315241,-0.0010564851536138903,-0.0010564851536138903,-0.0010564851536138903,-0.0010564851536138903,-0.0010564851536138903,-0.0010564851536138903
V-ÔłžS+,14.691738795088181,-0.026830918256289808,-0.024186364139891982,-0.024186364139891982,-0.024186364139891982,-0.024186364139891982,-0.010235726177315241,-0.010235726177315241,-0.010235726177315241,-0.010235726177315241,-0.0010564851536138903,-0.0010564851536138903,-0.0010564851536138903,-0.0010564851536138903,-0.0010564851536138903,-0.0010564851536138903
V+ÔłžS-,14.691738795088181,-0.026830918256289808,-0.024186364139891982,-0.024186364139891982,-0.024186364139891982,-0.024186364139891982,-0.010235726177315241,-0.010235726177315241,-0.010235726177315241,-0.010235726177315241,-0.0010564851536138903,-0.0010564851536138903,-0.0010564851536138903,-0.0010564851536138903,-0.0010564851536138903,-0.0010564851536138903
V+ÔłžS+,14.691738795088181,-0.026830918256289808,-0.024186364139891982,-0.024186364139891982,-0.024186364139891982,-0.024186364139891982,-0.010235726177315241,-0.010235726177315241,-0.010235726177315241,-0.010235726177315241,-0.0010564851536138903,-0.0010564851536138903,-0.0010564851536138903,-0.0010564851536138903,-0.0010564851536138903,-0.0010564851536138903
S-ÔłžS+,14.691738795088181,-0.026830918256289808,-0.024186364139891982,-0.024186364139891982,-0.024186364139891982,-0.024186364139891982,-0.010235726177315241,-0.010235726177315241,-0.010235726177315241,-0.010235726177315241,-0.0010564851536138903,-0.0010564851536138903,-0.0010564851536138903,-0.0010564851536138903,-0.0010564851536138903,-0.0010564851536138903
